digraph Tree {
node [shape=box] ;
0 [label="fun1_1 <= 19.5\ngini = 0.317\nsamples = 978\nvalue = [785, 193]"] ;
1 [label="art <= 9.5\ngini = 0.229\nsamples = 470\nvalue = [408, 62]"] ;
0 -> 1 [labeldistance=2.5, labelangle=45, headlabel="True"] ;
2 [label="pf_o_att <= 19.5\ngini = 0.187\nsamples = 432\nvalue = [387, 45]"] ;
1 -> 2 ;
3 [label="yoga <= 5.5\ngini = 0.272\nsamples = 154\nvalue = [129, 25]"] ;
2 -> 3 ;
4 [label="pf_o_int <= 47.5\ngini = 0.196\nsamples = 109\nvalue = [97, 12]"] ;
3 -> 4 ;
5 [label="int_corr <= -0.44\ngini = 0.171\nsamples = 106\nvalue = [96, 10]"] ;
4 -> 5 ;
6 [label="gini = 0.5\nsamples = 4\nvalue = [2, 2]"] ;
5 -> 6 ;
7 [label="gini = 0.145\nsamples = 102\nvalue = [94, 8]"] ;
5 -> 7 ;
8 [label="gini = 0.444\nsamples = 3\nvalue = [1, 2]"] ;
4 -> 8 ;
9 [label="int_corr <= 0.085\ngini = 0.411\nsamples = 45\nvalue = [32, 13]"] ;
3 -> 9 ;
10 [label="gini = 0.0\nsamples = 7\nvalue = [7, 0]"] ;
9 -> 10 ;
11 [label="int_corr <= 0.155\ngini = 0.45\nsamples = 38\nvalue = [25, 13]"] ;
9 -> 11 ;
12 [label="gini = 0.0\nsamples = 2\nvalue = [0, 2]"] ;
11 -> 12 ;
13 [label="gini = 0.424\nsamples = 36\nvalue = [25, 11]"] ;
11 -> 13 ;
14 [label="race_1.0 <= 0.5\ngini = 0.134\nsamples = 278\nvalue = [258, 20]"] ;
2 -> 14 ;
15 [label="hiking <= 2.5\ngini = 0.085\nsamples = 224\nvalue = [214, 10]"] ;
14 -> 15 ;
16 [label="pf_o_sin <= 16.0\ngini = 0.238\nsamples = 29\nvalue = [25, 4]"] ;
15 -> 16 ;
17 [label="gini = 0.426\nsamples = 13\nvalue = [9, 4]"] ;
16 -> 17 ;
18 [label="gini = 0.0\nsamples = 16\nvalue = [16, 0]"] ;
16 -> 18 ;
19 [label="career_c <= 3.0\ngini = 0.06\nsamples = 195\nvalue = [189, 6]"] ;
15 -> 19 ;
20 [label="gini = 0.177\nsamples = 51\nvalue = [46, 5]"] ;
19 -> 20 ;
21 [label="gini = 0.014\nsamples = 144\nvalue = [143, 1]"] ;
19 -> 21 ;
22 [label="samerace <= 0.5\ngini = 0.302\nsamples = 54\nvalue = [44, 10]"] ;
14 -> 22 ;
23 [label="pf_o_fun <= 17.5\ngini = 0.227\nsamples = 46\nvalue = [40, 6]"] ;
22 -> 23 ;
24 [label="gini = 0.069\nsamples = 28\nvalue = [27, 1]"] ;
23 -> 24 ;
25 [label="gini = 0.401\nsamples = 18\nvalue = [13, 5]"] ;
23 -> 25 ;
26 [label="shar2_1 <= 7.5\ngini = 0.5\nsamples = 8\nvalue = [4, 4]"] ;
22 -> 26 ;
27 [label="gini = 0.0\nsamples = 2\nvalue = [0, 2]"] ;
26 -> 27 ;
28 [label="gini = 0.444\nsamples = 6\nvalue = [4, 2]"] ;
26 -> 28 ;
29 [label="int_corr <= 0.195\ngini = 0.494\nsamples = 38\nvalue = [21, 17]"] ;
1 -> 29 ;
30 [label="pf_o_att <= 42.5\ngini = 0.18\nsamples = 10\nvalue = [9, 1]"] ;
29 -> 30 ;
31 [label="gini = 0.0\nsamples = 8\nvalue = [8, 0]"] ;
30 -> 31 ;
32 [label="gini = 0.5\nsamples = 2\nvalue = [1, 1]"] ;
30 -> 32 ;
33 [label="pf_o_int <= 19.5\ngini = 0.49\nsamples = 28\nvalue = [12, 16]"] ;
29 -> 33 ;
34 [label="clubbing <= 9.5\ngini = 0.245\nsamples = 7\nvalue = [6, 1]"] ;
33 -> 34 ;
35 [label="gini = 0.0\nsamples = 5\nvalue = [5, 0]"] ;
34 -> 35 ;
36 [label="gini = 0.5\nsamples = 2\nvalue = [1, 1]"] ;
34 -> 36 ;
37 [label="int_corr <= 0.795\ngini = 0.408\nsamples = 21\nvalue = [6, 15]"] ;
33 -> 37 ;
38 [label="pf_o_att <= 27.5\ngini = 0.332\nsamples = 19\nvalue = [4, 15]"] ;
37 -> 38 ;
39 [label="gini = 0.208\nsamples = 17\nvalue = [2, 15]"] ;
38 -> 39 ;
40 [label="gini = 0.0\nsamples = 2\nvalue = [2, 0]"] ;
38 -> 40 ;
41 [label="gini = 0.0\nsamples = 2\nvalue = [2, 0]"] ;
37 -> 41 ;
42 [label="exphappy <= 7.5\ngini = 0.383\nsamples = 508\nvalue = [377, 131]"] ;
0 -> 42 [labeldistance=2.5, labelangle=-45, headlabel="False"] ;
43 [label="clubbing <= 4.5\ngini = 0.372\nsamples = 498\nvalue = [375, 123]"] ;
42 -> 43 ;
44 [label="pf_o_att <= 7.5\ngini = 0.117\nsamples = 64\nvalue = [60, 4]"] ;
43 -> 44 ;
45 [label="gini = 0.5\nsamples = 2\nvalue = [1, 1]"] ;
44 -> 45 ;
46 [label="pf_o_fun <= 18.5\ngini = 0.092\nsamples = 62\nvalue = [59, 3]"] ;
44 -> 46 ;
47 [label="gini = 0.0\nsamples = 34\nvalue = [34, 0]"] ;
46 -> 47 ;
48 [label="yoga <= 1.5\ngini = 0.191\nsamples = 28\nvalue = [25, 3]"] ;
46 -> 48 ;
49 [label="gini = 0.5\nsamples = 2\nvalue = [1, 1]"] ;
48 -> 49 ;
50 [label="gini = 0.142\nsamples = 26\nvalue = [24, 2]"] ;
48 -> 50 ;
51 [label="sinc2_1 <= 17.5\ngini = 0.398\nsamples = 434\nvalue = [315, 119]"] ;
43 -> 51 ;
52 [label="pf_o_sha <= 23.61\ngini = 0.384\nsamples = 416\nvalue = [308, 108]"] ;
51 -> 52 ;
53 [label="pf_o_sha <= 9.545\ngini = 0.371\nsamples = 402\nvalue = [303, 99]"] ;
52 -> 53 ;
54 [label="gini = 0.45\nsamples = 146\nvalue = [96, 50]"] ;
53 -> 54 ;
55 [label="gini = 0.31\nsamples = 256\nvalue = [207, 49]"] ;
53 -> 55 ;
56 [label="intel2_1 <= 12.5\ngini = 0.459\nsamples = 14\nvalue = [5, 9]"] ;
52 -> 56 ;
57 [label="gini = 0.0\nsamples = 8\nvalue = [0, 8]"] ;
56 -> 57 ;
58 [label="gini = 0.278\nsamples = 6\nvalue = [5, 1]"] ;
56 -> 58 ;
59 [label="int_corr <= 0.295\ngini = 0.475\nsamples = 18\nvalue = [7, 11]"] ;
51 -> 59 ;
60 [label="gini = 0.0\nsamples = 4\nvalue = [4, 0]"] ;
59 -> 60 ;
61 [label="pf_o_sha <= 7.5\ngini = 0.337\nsamples = 14\nvalue = [3, 11]"] ;
59 -> 61 ;
62 [label="gini = 0.0\nsamples = 2\nvalue = [2, 0]"] ;
61 -> 62 ;
63 [label="gini = 0.153\nsamples = 12\nvalue = [1, 11]"] ;
61 -> 63 ;
64 [label="pf_o_sha <= 7.045\ngini = 0.32\nsamples = 10\nvalue = [2, 8]"] ;
42 -> 64 ;
65 [label="gini = 0.444\nsamples = 3\nvalue = [2, 1]"] ;
64 -> 65 ;
66 [label="gini = 0.0\nsamples = 7\nvalue = [0, 7]"] ;
64 -> 66 ;
}